booster[0]:
0:[f0<3074] yes=1,no=2,missing=1
	1:[f0<2501] yes=3,no=4,missing=3
		3:[f0<2466] yes=7,no=8,missing=7
			7:[f44<0.5] yes=15,no=16,missing=15
				15:[f23<0.5] yes=31,no=32,missing=31
					31:[f46<0.5] yes=61,no=62,missing=61
						61:leaf=-0.587316
						62:leaf=0.381818
					32:[f12<0.5] yes=63,no=64,missing=63
						63:leaf=-0.537327
						64:leaf=-0.257143
				16:leaf=0.547826
			8:[f10<0.5] yes=17,no=18,missing=17
				17:[f23<0.5] yes=33,no=34,missing=33
					33:[f46<0.5] yes=65,no=66,missing=65
						65:leaf=-0.479532
						66:leaf=0.447273
					34:[f5<1358] yes=67,no=68,missing=67
						67:leaf=-0.0828358
						68:leaf=-0.573723
				18:[f9<5146] yes=35,no=36,missing=35
					35:[f5<760] yes=69,no=70,missing=69
						69:leaf=0.218182
						70:leaf=0.58209
					36:[f1<155] yes=71,no=72,missing=71
						71:leaf=-0.546667
						72:leaf=-0.0666667
		4:[f25<0.5] yes=9,no=10,missing=9
			9:[f35<0.5] yes=19,no=20,missing=19
				19:[f15<0.5] yes=37,no=38,missing=37
					37:[f36<0.5] yes=73,no=74,missing=73
						73:leaf=0.25928
						74:leaf=-0.00776988
					38:[f5<2301] yes=75,no=76,missing=75
						75:leaf=-0.444254
						76:leaf=-0.0184397
				20:[f0<2807] yes=39,no=40,missing=39
					39:[f0<2578] yes=77,no=78,missing=77
						77:leaf=0.12
						78:leaf=0.519231
					40:[f3<120] yes=79,no=80,missing=79
						79:leaf=-0.424052
						80:leaf=-0.175695
			10:[f9<6339] yes=21,no=22,missing=21
				21:[f5<4870] yes=41,no=42,missing=41
					41:[f5<1950] yes=81,no=82,missing=81
						81:leaf=0.481565
						82:leaf=0.548792
					42:[f9<5407] yes=83,no=84,missing=83
						83:leaf=0.128653
						84:leaf=0.374853
				22:[f4<73] yes=43,no=44,missing=43
					43:[f0<2747] yes=85,no=86,missing=85
						85:leaf=0.109565
						86:leaf=0.404608
					44:[f6<237] yes=87,no=88,missing=87
						87:leaf=-0.475862
						88:leaf=0.33913
	2:[f0<3298] yes=5,no=6,missing=5
		5:[f7<239] yes=11,no=12,missing=11
			11:[f5<1087] yes=23,no=24,missing=23
				23:[f12<0.5] yes=45,no=46,missing=45
					45:[f4<-38] yes=89,no=90,missing=89
						89:leaf=0.381818
						90:leaf=-0.215803
					46:[f46<0.5] yes=91,no=92,missing=91
						91:leaf=-0.00692763
						92:leaf=0.511656
				24:[f42<0.5] yes=47,no=48,missing=47
					47:[f45<0.5] yes=93,no=94,missing=93
						93:leaf=-0.422749
						94:leaf=-0.128457
					48:[f9<3184] yes=95,no=96,missing=95
						95:leaf=-0.130378
						96:leaf=-0.469177
			12:[f3<331] yes=25,no=26,missing=25
				25:[f0<3200] yes=49,no=50,missing=49
					49:[f5<5407] yes=97,no=98,missing=97
						97:leaf=-0.146895
						98:leaf=0.444226
					50:[f3<216] yes=99,no=100,missing=99
						99:leaf=-0.442113
						100:leaf=-0.276352
				26:[f0<3205] yes=51,no=52,missing=51
					51:[f5<830] yes=101,no=102,missing=101
						101:leaf=0.543582
						102:leaf=0.226188
					52:[f5<5792] yes=103,no=104,missing=103
						103:leaf=-0.0549318
						104:leaf=0.457369
		6:[f11<0.5] yes=13,no=14,missing=13
			13:[f40<0.5] yes=27,no=28,missing=27
				27:[f0<3327] yes=53,no=54,missing=53
					53:[f5<1337] yes=105,no=106,missing=105
						105:leaf=-0.168454
						106:leaf=-0.523654
					54:[f4<170] yes=107,no=108,missing=107
						107:leaf=-0.59315
						108:leaf=-0.541176
				28:[f9<2654] yes=55,no=56,missing=55
					55:[f5<4114] yes=109,no=110,missing=109
						109:leaf=0.505263
						110:leaf=-0.163636
					56:[f0<3365] yes=111,no=112,missing=111
						111:leaf=0.333333
						112:leaf=-0.415385
			14:[f9<2053] yes=29,no=30,missing=29
				29:[f5<690] yes=57,no=58,missing=57
					57:[f3<376] yes=113,no=114,missing=113
						113:leaf=0.456522
						114:leaf=-0.41215
					58:[f5<1981] yes=115,no=116,missing=115
						115:leaf=-0.589913
						116:leaf=0.323077
				30:[f0<3365] yes=59,no=60,missing=59
					59:[f9<3037] yes=117,no=118,missing=117
						117:leaf=0.457215
						118:leaf=-0.15
					60:[f5<1148] yes=119,no=120,missing=119
						119:leaf=0.0204878
						120:leaf=-0.537459
booster[1]:
0:[f0<3052] yes=1,no=2,missing=2
	1:[f0<2515] yes=3,no=4,missing=4
		3:[f10<0.5] yes=7,no=8,missing=8
			7:[f0<2430] yes=15,no=16,missing=15
				15:[f5<660] yes=31,no=32,missing=31
					31:[f0<2224] yes=63,no=64,missing=63
						63:leaf=-0.458485
						64:leaf=-0.345861
					32:[f9<1405] yes=65,no=66,missing=65
						65:leaf=-0.469631
						66:leaf=-0.408032
				16:[f23<0.5] yes=33,no=34,missing=34
					33:[f44<0.5] yes=67,no=68,missing=67
						67:leaf=-0.384326
						68:leaf=0.536207
					34:[f3<285] yes=69,no=70,missing=69
						69:leaf=-0.087907
						70:leaf=-0.461955
			8:[f9<5146] yes=17,no=18,missing=17
				17:[f3<306] yes=35,no=36,missing=36
					35:leaf=0.506688
					36:[f5<760] yes=71,no=72,missing=72
						71:leaf=0.0643151
						72:leaf=0.46347
				18:[f9<5643] yes=37,no=38,missing=38
					37:leaf=-0.538464
					38:leaf=0.359574
		4:[f17<0.5] yes=9,no=10,missing=9
			9:[f3<67] yes=19,no=20,missing=20
				19:[f0<2934] yes=39,no=40,missing=39
					39:[f12<0.5] yes=73,no=74,missing=73
						73:leaf=0.260775
						74:leaf=0.0107549
					40:[f5<1632] yes=75,no=76,missing=75
						75:leaf=0.00526706
						76:leaf=-0.186354
				20:[f15<0.5] yes=41,no=42,missing=42
					41:[f0<2996] yes=77,no=78,missing=77
						77:leaf=0.271905
						78:leaf=0.111611
					42:[f6<196] yes=79,no=80,missing=80
						79:leaf=0.117167
						80:leaf=-0.35518
			10:[f0<2687] yes=21,no=22,missing=21
				21:[f12<0.5] yes=43,no=44,missing=44
					43:leaf=0.483521
					44:[f0<2626] yes=81,no=82,missing=81
						81:leaf=-0.652185
						82:leaf=-0.396188
				22:[f9<2213] yes=45,no=46,missing=46
					45:[f5<1172] yes=83,no=84,missing=84
						83:leaf=-0.193711
						84:leaf=0.257884
					46:[f0<2877] yes=85,no=86,missing=86
						85:leaf=-0.44836
						86:leaf=0.401745
	2:[f0<3175] yes=5,no=6,missing=5
		5:[f7<243] yes=11,no=12,missing=11
			11:[f3<182] yes=23,no=24,missing=23
				23:[f5<5355] yes=47,no=48,missing=47
					47:[f45<0.5] yes=87,no=88,missing=87
						87:leaf=-0.297114
						88:leaf=0.107627
					48:[f9<1182] yes=89,no=90,missing=89
						89:leaf=-0.410634
						90:leaf=0.450956
				24:[f3<902] yes=49,no=50,missing=49
					49:[f7<224] yes=91,no=92,missing=91
						91:leaf=-0.146127
						92:leaf=-0.00174549
					50:[f5<1691] yes=93,no=94,missing=93
						93:leaf=0.00799801
						94:leaf=0.648284
			12:[f3<127] yes=25,no=26,missing=25
				25:[f45<0.5] yes=51,no=52,missing=52
					51:[f5<5407] yes=95,no=96,missing=95
						95:leaf=-0.209462
						96:leaf=0.242841
					52:[f3<42] yes=97,no=98,missing=98
						97:leaf=-0.169239
						98:leaf=0.362671
				26:[f5<702] yes=53,no=54,missing=54
					53:[f12<0.5] yes=99,no=100,missing=99
						99:leaf=0.0394613
						100:leaf=0.535005
					54:[f5<2082] yes=101,no=102,missing=101
						101:leaf=-0.0257647
						102:leaf=0.257632
		6:[f5<960] yes=13,no=14,missing=13
			13:[f9<2053] yes=27,no=28,missing=27
				27:[f37<0.5] yes=55,no=56,missing=55
					55:[f45<0.5] yes=103,no=104,missing=103
						103:leaf=-0.324141
						104:leaf=-0.0461115
					56:[f1<133] yes=105,no=106,missing=105
						105:leaf=0.597124
						106:leaf=0.0415735
				28:[f1<113] yes=57,no=58,missing=57
					57:[f36<0.5] yes=107,no=108,missing=107
						107:leaf=-0.289621
						108:leaf=0.454285
					58:[f12<0.5] yes=109,no=110,missing=109
						109:leaf=0.217008
						110:leaf=0.552363
			14:[f5<5194] yes=29,no=30,missing=30
				29:[f0<3327] yes=59,no=60,missing=59
					59:[f3<240] yes=111,no=112,missing=111
						111:leaf=-0.373399
						112:leaf=-0.25455
					60:[f40<0.5] yes=113,no=114,missing=113
						113:leaf=-0.433647
						114:leaf=0.275044
				30:[f9<1259] yes=61,no=62,missing=61
					61:[f42<0.5] yes=115,no=116,missing=116
						115:leaf=-0.414896
						116:leaf=-0.0177637
					62:[f9<2574] yes=117,no=118,missing=117
						117:leaf=0.026206
						118:leaf=0.382063
booster[2]:
0:[f0<3102] yes=1,no=2,missing=1
	1:[f0<2484] yes=3,no=4,missing=4
		3:[f0<2430] yes=7,no=8,missing=7
			7:[f5<660] yes=15,no=16,missing=16
				15:[f0<2224] yes=31,no=32,missing=31
					31:[f0<2141] yes=63,no=64,missing=64
						63:leaf=-0.407001
						64:leaf=-0.358414
					32:[f23<0.5] yes=65,no=66,missing=65
						65:leaf=-0.368054
						66:leaf=-0.181627
				16:[f9<1360] yes=33,no=34,missing=33
					33:leaf=-0.405328
					34:[f0<2374] yes=67,no=68,missing=67
						67:leaf=-0.409446
						68:leaf=-0.249517
			8:[f3<153] yes=17,no=18,missing=17
				17:[f23<0.5] yes=35,no=36,missing=36
					35:[f46<0.5] yes=69,no=70,missing=69
						69:leaf=-0.286143
						70:leaf=0.359307
					36:[f9<228] yes=71,no=72,missing=72
						71:leaf=0.729934
						72:leaf=-0.0651559
				18:[f44<0.5] yes=37,no=38,missing=37
					37:[f9<1290] yes=73,no=74,missing=74
						73:leaf=-0.395355
						74:leaf=-0.246158
					38:leaf=0.421755
		4:[f0<3022] yes=9,no=10,missing=10
			9:[f17<0.5] yes=19,no=20,missing=20
				19:[f10<0.5] yes=39,no=40,missing=39
					39:[f0<2642] yes=75,no=76,missing=76
						75:leaf=-0.0831004
						76:leaf=0.136351
					40:[f5<362] yes=77,no=78,missing=78
						77:leaf=-0.197886
						78:leaf=0.236644
				20:[f0<2705] yes=41,no=42,missing=41
					41:[f12<0.5] yes=79,no=80,missing=80
						79:leaf=0.465803
						80:leaf=-0.400614
					42:[f9<1723] yes=81,no=82,missing=82
						81:leaf=0.230686
						82:leaf=-0.0917865
			10:[f3<420] yes=21,no=22,missing=21
				21:[f45<0.5] yes=43,no=44,missing=43
					43:[f5<5355] yes=83,no=84,missing=83
						83:leaf=-0.132872
						84:leaf=0.276421
					44:[f1<147] yes=85,no=86,missing=86
						85:leaf=0.0381261
						86:leaf=0.261078
				22:[f7<230] yes=45,no=46,missing=45
					45:[f9<3271] yes=87,no=88,missing=87
						87:leaf=0.120237
						88:leaf=-0.187726
					46:[f5<2318] yes=89,no=90,missing=89
						89:leaf=0.357133
						90:leaf=0.19063
	2:[f0<3308] yes=5,no=6,missing=5
		5:[f7<241] yes=11,no=12,missing=11
			11:[f5<1148] yes=23,no=24,missing=23
				23:[f6<235] yes=47,no=48,missing=47
					47:[f35<0.5] yes=91,no=92,missing=91
						91:leaf=-0.0653394
						92:leaf=-0.307131
					48:[f9<4801] yes=93,no=94,missing=93
						93:leaf=0.139909
						94:leaf=-0.5125
				24:[f42<0.5] yes=49,no=50,missing=49
					49:[f45<0.5] yes=95,no=96,missing=96
						95:leaf=-0.272271
						96:leaf=-0.0865522
					50:[f9<1140] yes=97,no=98,missing=97
						97:leaf=0.227956
						98:leaf=-0.166641
			12:[f3<391] yes=25,no=26,missing=26
				25:[f45<0.5] yes=51,no=52,missing=51
					51:[f5<5464] yes=99,no=100,missing=99
						99:leaf=-0.201505
						100:leaf=0.154609
					52:[f0<3202] yes=101,no=102,missing=101
						101:leaf=0.243702
						102:leaf=-0.0743946
				26:[f44<0.5] yes=53,no=54,missing=53
					53:[f9<698] yes=103,no=104,missing=104
						103:leaf=-0.149204
						104:leaf=0.226193
					54:[f4<97] yes=105,no=106,missing=106
						105:leaf=0.0860493
						106:leaf=-0.41076
		6:[f11<0.5] yes=13,no=14,missing=13
			13:[f40<0.5] yes=27,no=28,missing=27
				27:[f5<1337] yes=55,no=56,missing=56
					55:[f9<2268] yes=107,no=108,missing=108
						107:leaf=-0.385938
						108:leaf=-0.0552696
					56:[f46<0.5] yes=109,no=110,missing=110
						109:leaf=-0.396775
						110:leaf=-0.293129
				28:[f9<2639] yes=57,no=58,missing=58
					57:[f5<4073] yes=111,no=112,missing=111
						111:leaf=0.419206
						112:leaf=-0.0554965
					58:[f0<3372] yes=113,no=114,missing=114
						113:leaf=0.285297
						114:leaf=-0.454199
			14:[f9<2160] yes=29,no=30,missing=29
				29:[f5<457] yes=59,no=60,missing=60
					59:[f9<402] yes=115,no=116,missing=116
						115:leaf=0.593701
						116:leaf=-0.267549
					60:[f5<750] yes=117,no=118,missing=117
						117:leaf=-0.267063
						118:leaf=-0.404732
				30:[f4<120] yes=61,no=62,missing=62
					61:[f5<1087] yes=119,no=120,missing=120
						119:leaf=0.194179
						120:leaf=-0.214902
					62:[f9<4692] yes=121,no=122,missing=121
						121:leaf=0.545587
						122:leaf=-0.404692
booster[3]:
0:[f0<3146] yes=1,no=2,missing=1
	1:[f0<2484] yes=3,no=4,missing=4
		3:[f0<2411] yes=7,no=8,missing=8
			7:[f5<660] yes=15,no=16,missing=16
				15:[f0<2185] yes=31,no=32,missing=31
					31:[f0<2141] yes=63,no=64,missing=63
						63:leaf=-0.370993
						64:leaf=-0.330005
					32:[f23<0.5] yes=65,no=66,missing=66
						65:leaf=-0.326884
						66:leaf=-0.162133
				16:[f9<1413] yes=33,no=34,missing=33
					33:leaf=-0.371209
					34:[f0<2374] yes=67,no=68,missing=67
						67:leaf=-0.370825
						68:leaf=-0.201103
			8:[f3<134] yes=17,no=18,missing=17
				17:[f23<0.5] yes=35,no=36,missing=36
					35:[f5<778] yes=69,no=70,missing=70
						69:leaf=-0.138409
						70:leaf=-0.354888
					36:[f12<0.5] yes=71,no=72,missing=71
						71:leaf=0.161623
						72:leaf=-0.17016
				18:[f44<0.5] yes=37,no=38,missing=38
					37:[f6<159] yes=73,no=74,missing=73
						73:leaf=-0.154461
						74:leaf=-0.325525
					38:leaf=0.393454
		4:[f0<2974] yes=9,no=10,missing=9
			9:[f10<0.5] yes=19,no=20,missing=19
				19:[f0<2634] yes=39,no=40,missing=40
					39:[f17<0.5] yes=75,no=76,missing=75
						75:leaf=-0.0633368
						76:leaf=-0.374792
					40:[f5<1931] yes=77,no=78,missing=78
						77:leaf=0.144571
						78:leaf=0.0164111
				20:[f5<404] yes=41,no=42,missing=41
					41:[f0<2665] yes=79,no=80,missing=80
						79:leaf=0.451551
						80:leaf=-0.262175
					42:[f0<2693] yes=81,no=82,missing=81
						81:leaf=0.376516
						82:leaf=0.192264
			10:[f3<192] yes=21,no=22,missing=21
				21:[f45<0.5] yes=43,no=44,missing=44
					43:[f44<0.5] yes=83,no=84,missing=83
						83:leaf=-0.144458
						84:leaf=0.190954
					44:[f9<812] yes=85,no=86,missing=85
						85:leaf=0.36126
						86:leaf=0.0411025
				22:[f7<232] yes=45,no=46,missing=45
					45:[f7<201] yes=87,no=88,missing=87
						87:leaf=-0.152233
						88:leaf=0.0306545
					46:[f3<552] yes=89,no=90,missing=89
						89:leaf=0.129666
						90:leaf=0.304265
	2:[f0<3320] yes=5,no=6,missing=6
		5:[f3<228] yes=11,no=12,missing=12
			11:[f11<0.5] yes=23,no=24,missing=23
				23:[f5<4657] yes=47,no=48,missing=47
					47:[f45<0.5] yes=91,no=92,missing=91
						91:leaf=-0.293593
						92:leaf=-0.0597439
					48:[f9<1360] yes=93,no=94,missing=94
						93:leaf=-0.201805
						94:leaf=0.0816737
				24:[f0<3221] yes=49,no=50,missing=49
					49:[f29<0.5] yes=95,no=96,missing=96
						95:leaf=-0.259131
						96:leaf=0.638859
					50:[f9<3636] yes=97,no=98,missing=98
						97:leaf=0.236425
						98:leaf=-0.283204
			12:[f7<236] yes=25,no=26,missing=25
				25:[f5<997] yes=51,no=52,missing=52
					51:[f6<185] yes=99,no=100,missing=99
						99:leaf=-0.237181
						100:leaf=0.069351
					52:[f9<912] yes=101,no=102,missing=102
						101:leaf=-0.343841
						102:leaf=-0.147048
				26:[f5<4811] yes=53,no=54,missing=54
					53:[f12<0.5] yes=103,no=104,missing=104
						103:leaf=-0.158276
						104:leaf=0.0637253
					54:[f35<0.5] yes=105,no=106,missing=105
						105:leaf=0.34178
						106:leaf=-0.00982973
		6:[f11<0.5] yes=13,no=14,missing=13
			13:[f40<0.5] yes=27,no=28,missing=27
				27:[f0<3349] yes=55,no=56,missing=56
					55:[f3<591] yes=107,no=108,missing=107
						107:leaf=-0.343471
						108:leaf=-0.0553765
					56:[f44<0.5] yes=109,no=110,missing=109
						109:leaf=-0.369288
						110:leaf=-0.153867
				28:[f9<2639] yes=57,no=58,missing=57
					57:[f5<4114] yes=111,no=112,missing=111
						111:leaf=0.33882
						112:leaf=-0.174396
					58:[f0<3372] yes=113,no=114,missing=113
						113:leaf=0.221534
						114:leaf=-0.368699
			14:[f9<2188] yes=29,no=30,missing=29
				29:[f5<750] yes=59,no=60,missing=60
					59:[f3<319] yes=115,no=116,missing=115
						115:leaf=0.590773
						116:leaf=-0.34623
					60:[f9<2160] yes=117,no=118,missing=117
						117:leaf=-0.372608
						118:leaf=-0.154872
				30:[f4<46] yes=61,no=62,missing=61
					61:[f5<949] yes=119,no=120,missing=120
						119:leaf=0.236375
						120:leaf=-0.293918
					62:[f53<0.5] yes=121,no=122,missing=122
						121:leaf=0.210753
						122:leaf=-0.406771
